digraph Tree {
node [shape=box, style="rounded", color="black", fontname="helvetica"] ;
edge [fontname="helvetica"] ;
0 [label="average <= 55.6\nsquared_error = 130.4\nsamples = 40\nvalue = 62.8"] ;
1 [label="temp_1 <= 46.5\nsquared_error = 48.2\nsamples = 16\nvalue = 51.6"] ;
0 -> 1 [labeldistance=2.5, labelangle=45, headlabel="True"] ;
2 [label="week_Mon <= 0.5\nsquared_error = 1.2\nsamples = 3\nvalue = 39.7"] ;
1 -> 2 ;
3 [label="average <= 45.2\nsquared_error = 0.2\nsamples = 2\nvalue = 39.2"] ;
2 -> 3 ;
4 [label="squared_error = 0.0\nsamples = 1\nvalue = 40.0"] ;
3 -> 4 ;
5 [label="squared_error = 0.0\nsamples = 1\nvalue = 39.0"] ;
3 -> 5 ;
6 [label="squared_error = 0.0\nsamples = 1\nvalue = 42.0"] ;
2 -> 6 ;
7 [label="average <= 49.4\nsquared_error = 11.5\nsamples = 13\nvalue = 54.9"] ;
1 -> 7 ;
8 [label="week_Thurs <= 0.5\nsquared_error = 2.1\nsamples = 3\nvalue = 51.2"] ;
7 -> 8 ;
9 [label="week_Sun <= 0.5\nsquared_error = 0.2\nsamples = 2\nvalue = 51.8"] ;
8 -> 9 ;
10 [label="squared_error = 0.0\nsamples = 1\nvalue = 52.0"] ;
9 -> 10 ;
11 [label="squared_error = 0.0\nsamples = 1\nvalue = 51.0"] ;
9 -> 11 ;
12 [label="squared_error = 0.0\nsamples = 1\nvalue = 48.0"] ;
8 -> 12 ;
13 [label="week_Sat <= 0.5\nsquared_error = 7.9\nsamples = 10\nvalue = 56.2"] ;
7 -> 13 ;
14 [label="average <= 50.1\nsquared_error = 4.6\nsamples = 8\nvalue = 55.5"] ;
13 -> 14 ;
15 [label="squared_error = 0.0\nsamples = 1\nvalue = 58.0"] ;
14 -> 15 ;
16 [label="temp_1 <= 52.0\nsquared_error = 3.6\nsamples = 7\nvalue = 54.8"] ;
14 -> 16 ;
17 [label="squared_error = 0.0\nsamples = 1\nvalue = 51.0"] ;
16 -> 17 ;
18 [label="temp_2 <= 62.5\nsquared_error = 2.2\nsamples = 6\nvalue = 55.2"] ;
16 -> 18 ;
19 [label="temp_1 <= 54.5\nsquared_error = 1.0\nsamples = 5\nvalue = 55.9"] ;
18 -> 19 ;
20 [label="week_Thurs <= 0.5\nsquared_error = 0.2\nsamples = 2\nvalue = 54.5"] ;
19 -> 20 ;
21 [label="squared_error = 0.0\nsamples = 1\nvalue = 55.0"] ;
20 -> 21 ;
22 [label="squared_error = 0.0\nsamples = 1\nvalue = 54.0"] ;
20 -> 22 ;
23 [label="average <= 52.0\nsquared_error = 0.2\nsamples = 3\nvalue = 56.4"] ;
19 -> 23 ;
24 [label="squared_error = 0.0\nsamples = 1\nvalue = 57.0"] ;
23 -> 24 ;
25 [label="squared_error = 0.0\nsamples = 2\nvalue = 56.0"] ;
23 -> 25 ;
26 [label="squared_error = 0.0\nsamples = 1\nvalue = 53.0"] ;
18 -> 26 ;
27 [label="temp_2 <= 60.0\nsquared_error = 10.9\nsamples = 2\nvalue = 59.3"] ;
13 -> 27 ;
28 [label="squared_error = 0.0\nsamples = 1\nvalue = 64.0"] ;
27 -> 28 ;
29 [label="squared_error = 0.0\nsamples = 1\nvalue = 57.0"] ;
27 -> 29 ;
30 [label="temp_1 <= 71.5\nsquared_error = 41.5\nsamples = 24\nvalue = 70.5"] ;
0 -> 30 [labeldistance=2.5, labelangle=-45, headlabel="False"] ;
31 [label="temp_2 <= 67.0\nsquared_error = 6.5\nsamples = 12\nvalue = 65.7"] ;
30 -> 31 ;
32 [label="average <= 59.7\nsquared_error = 6.0\nsamples = 7\nvalue = 64.8"] ;
31 -> 32 ;
33 [label="squared_error = 0.0\nsamples = 1\nvalue = 58.0"] ;
32 -> 33 ;
34 [label="average <= 63.4\nsquared_error = 2.4\nsamples = 6\nvalue = 65.3"] ;
32 -> 34 ;
35 [label="average <= 61.2\nsquared_error = 1.0\nsamples = 2\nvalue = 66.8"] ;
34 -> 35 ;
36 [label="squared_error = 0.0\nsamples = 1\nvalue = 66.0"] ;
35 -> 36 ;
37 [label="squared_error = 0.0\nsamples = 1\nvalue = 68.0"] ;
35 -> 37 ;
38 [label="week_Tues <= 0.5\nsquared_error = 0.8\nsamples = 4\nvalue = 64.3"] ;
34 -> 38 ;
39 [label="average <= 65.9\nsquared_error = 0.3\nsamples = 3\nvalue = 64.0"] ;
38 -> 39 ;
40 [label="squared_error = 0.0\nsamples = 1\nvalue = 63.0"] ;
39 -> 40 ;
41 [label="average <= 66.6\nsquared_error = 0.2\nsamples = 2\nvalue = 64.2"] ;
39 -> 41 ;
42 [label="squared_error = 0.0\nsamples = 1\nvalue = 65.0"] ;
41 -> 42 ;
43 [label="squared_error = 0.0\nsamples = 1\nvalue = 64.0"] ;
41 -> 43 ;
44 [label="squared_error = 0.0\nsamples = 1\nvalue = 66.0"] ;
38 -> 44 ;
45 [label="temp_2 <= 72.0\nsquared_error = 3.4\nsamples = 5\nvalue = 67.2"] ;
31 -> 45 ;
46 [label="temp_2 <= 70.0\nsquared_error = 1.0\nsamples = 4\nvalue = 67.9"] ;
45 -> 46 ;
47 [label="temp_2 <= 68.5\nsquared_error = 0.2\nsamples = 2\nvalue = 66.5"] ;
46 -> 47 ;
48 [label="squared_error = 0.0\nsamples = 1\nvalue = 67.0"] ;
47 -> 48 ;
49 [label="squared_error = 0.0\nsamples = 1\nvalue = 66.0"] ;
47 -> 49 ;
50 [label="temp_1 <= 65.0\nsquared_error = 0.2\nsamples = 2\nvalue = 68.4"] ;
46 -> 50 ;
51 [label="squared_error = 0.0\nsamples = 1\nvalue = 69.0"] ;
50 -> 51 ;
52 [label="squared_error = 0.0\nsamples = 1\nvalue = 68.0"] ;
50 -> 52 ;
53 [label="squared_error = 0.0\nsamples = 1\nvalue = 63.0"] ;
45 -> 53 ;
54 [label="average <= 58.2\nsquared_error = 28.6\nsamples = 12\nvalue = 75.6"] ;
30 -> 54 ;
55 [label="squared_error = 0.0\nsamples = 1\nvalue = 66.0"] ;
54 -> 55 ;
56 [label="week_Sat <= 0.5\nsquared_error = 7.3\nsamples = 11\nvalue = 77.9"] ;
54 -> 56 ;
57 [label="average <= 60.6\nsquared_error = 6.8\nsamples = 10\nvalue = 77.5"] ;
56 -> 57 ;
58 [label="squared_error = 0.0\nsamples = 1\nvalue = 81.0"] ;
57 -> 58 ;
59 [label="week_Thurs <= 0.5\nsquared_error = 5.6\nsamples = 9\nvalue = 76.9"] ;
57 -> 59 ;
60 [label="week_Sun <= 0.5\nsquared_error = 3.2\nsamples = 7\nvalue = 75.9"] ;
59 -> 60 ;
61 [label="temp_2 <= 76.0\nsquared_error = 1.2\nsamples = 6\nvalue = 75.4"] ;
60 -> 61 ;
62 [label="average <= 71.2\nsquared_error = 0.8\nsamples = 4\nvalue = 75.8"] ;
61 -> 62 ;
63 [label="squared_error = 0.0\nsamples = 1\nvalue = 77.0"] ;
62 -> 63 ;
64 [label="average <= 75.7\nsquared_error = 0.6\nsamples = 3\nvalue = 75.6"] ;
62 -> 64 ;
65 [label="squared_error = 0.0\nsamples = 1\nvalue = 74.0"] ;
64 -> 65 ;
66 [label="squared_error = 0.0\nsamples = 2\nvalue = 76.0"] ;
64 -> 66 ;
67 [label="squared_error = 0.0\nsamples = 2\nvalue = 74.0"] ;
61 -> 67 ;
68 [label="squared_error = 0.0\nsamples = 1\nvalue = 80.0"] ;
60 -> 68 ;
69 [label="squared_error = 0.0\nsamples = 2\nvalue = 80.0"] ;
59 -> 69 ;
70 [label="squared_error = 0.0\nsamples = 1\nvalue = 81.0"] ;
56 -> 70 ;
}